digraph Tree {
node [shape=box] ;
0 [label="X[4] <= 7.5\nmse = 5842637943.551\nsamples = 1095\nvalue = 178674.855"] ;
1 [label="X[4] <= 6.5\nmse = 2443140227.783\nsamples = 935\nvalue = 157742.202"] ;
0 -> 1 [labeldistance=2.5, labelangle=45, headlabel="True"] ;
2 [label="X[16] <= 1419.0\nmse = 1467945774.309\nsamples = 696\nvalue = 140494.414"] ;
1 -> 2 ;
3 [label="X[12] <= 1007.5\nmse = 848769500.154\nsamples = 458\nvalue = 126021.19"] ;
2 -> 3 ;
4 [label="mse = 640295735.747\nsamples = 298\nvalue = 114496.507"] ;
3 -> 4 ;
5 [label="mse = 528943444.23\nsamples = 160\nvalue = 147485.912"] ;
3 -> 5 ;
6 [label="X[4] <= 5.5\nmse = 1480639372.556\nsamples = 238\nvalue = 168346.248"] ;
2 -> 6 ;
7 [label="mse = 1096341934.553\nsamples = 94\nvalue = 146694.979"] ;
6 -> 7 ;
8 [label="mse = 1225737793.398\nsamples = 144\nvalue = 182479.715"] ;
6 -> 8 ;
9 [label="X[9] <= 960.5\nmse = 1893878569.505\nsamples = 239\nvalue = 207970.071"] ;
1 -> 9 ;
10 [label="X[16] <= 1827.5\nmse = 1233887593.0\nsamples = 205\nvalue = 199272.005"] ;
9 -> 10 ;
11 [label="mse = 867954799.924\nsamples = 148\nvalue = 189015.851"] ;
10 -> 11 ;
12 [label="mse = 1201749807.386\nsamples = 57\nvalue = 225902.018"] ;
10 -> 12 ;
13 [label="X[16] <= 1690.0\nmse = 2666676076.972\nsamples = 34\nvalue = 260414.294"] ;
9 -> 13 ;
14 [label="mse = 877087722.109\nsamples = 16\nvalue = 224623.625"] ;
13 -> 14 ;
15 [label="mse = 2106653485.728\nsamples = 18\nvalue = 292228.222"] ;
13 -> 15 ;
16 [label="X[4] <= 8.5\nmse = 8184410175.654\nsamples = 160\nvalue = 301000.044"] ;
0 -> 16 [labeldistance=2.5, labelangle=-45, headlabel="False"] ;
17 [label="X[16] <= 1925.5\nmse = 3855666607.909\nsamples = 123\nvalue = 273190.163"] ;
16 -> 17 ;
18 [label="X[9] <= 859.0\nmse = 2430781243.449\nsamples = 76\nvalue = 248137.395"] ;
17 -> 18 ;
19 [label="mse = 1207420098.658\nsamples = 43\nvalue = 221225.605"] ;
18 -> 19 ;
20 [label="mse = 1851459495.229\nsamples = 33\nvalue = 283204.273"] ;
18 -> 20 ;
21 [label="X[28] <= 245.0\nmse = 3503697749.978\nsamples = 47\nvalue = 313701.021"] ;
17 -> 21 ;
22 [label="mse = 1744046259.918\nsamples = 37\nvalue = 295189.973"] ;
21 -> 22 ;
23 [label="mse = 4055569830.49\nsamples = 10\nvalue = 382191.9"] ;
21 -> 23 ;
24 [label="X[14] <= 1792.0\nmse = 11456730718.907\nsamples = 37\nvalue = 393449.108"] ;
16 -> 24 ;
25 [label="X[26] <= 2.5\nmse = 8246611282.99\nsamples = 36\nvalue = 383683.806"] ;
24 -> 25 ;
26 [label="mse = 3480782884.571\nsamples = 7\nvalue = 280276.0"] ;
25 -> 26 ;
27 [label="mse = 6192845829.869\nsamples = 29\nvalue = 408644.31"] ;
25 -> 27 ;
28 [label="mse = 0.0\nsamples = 1\nvalue = 745000.0"] ;
24 -> 28 ;
}